trait,dim_0,dim_1,dim_2,dim_3,dim_4,dim_5,dim_6,dim_7,dim_8,dim_9,dim_10,dim_11,dim_12,dim_13,dim_14,dim_15,dim_16,dim_17,dim_18,dim_19,dim_20,dim_21,dim_22,dim_23,dim_24,dim_25,dim_26,dim_27,dim_28,dim_29,dim_30,dim_31,dim_32,dim_33,dim_34,dim_35,dim_36,dim_37,dim_38,dim_39,dim_40,dim_41,dim_42,dim_43,dim_44,dim_45,dim_46,dim_47,dim_48,dim_49,dim_50,dim_51,dim_52,dim_53,dim_54,dim_55,dim_56,dim_57,dim_58,dim_59,dim_60,dim_61,dim_62,dim_63,dim_64,dim_65,dim_66,dim_67,dim_68,dim_69,dim_70,dim_71,dim_72,dim_73,dim_74,dim_75,dim_76,dim_77,dim_78,dim_79,dim_80,dim_81,dim_82,dim_83,dim_84,dim_85,dim_86,dim_87,dim_88,dim_89,dim_90,dim_91,dim_92,dim_93,dim_94,dim_95,dim_96,dim_97,dim_98,dim_99,dim_100,dim_101,dim_102,dim_103,dim_104,dim_105,dim_106,dim_107,dim_108,dim_109,dim_110,dim_111,dim_112,dim_113,dim_114,dim_115,dim_116,dim_117,dim_118,dim_119,dim_120,dim_121,dim_122,dim_123,dim_124,dim_125,dim_126,dim_127,dim_128,dim_129,dim_130,dim_131,dim_132,dim_133,dim_134,dim_135,dim_136,dim_137,dim_138,dim_139,dim_140,dim_141,dim_142,dim_143,dim_144,dim_145,dim_146,dim_147,dim_148,dim_149,dim_150,dim_151,dim_152,dim_153,dim_154,dim_155,dim_156,dim_157,dim_158,dim_159,dim_160,dim_161,dim_162,dim_163,dim_164,dim_165,dim_166,dim_167,dim_168,dim_169,dim_170,dim_171,dim_172,dim_173,dim_174,dim_175,dim_176,dim_177,dim_178,dim_179,dim_180,dim_181,dim_182,dim_183,dim_184,dim_185,dim_186,dim_187,dim_188,dim_189,dim_190,dim_191,dim_192,dim_193,dim_194,dim_195,dim_196,dim_197,dim_198,dim_199,dim_200,dim_201,dim_202,dim_203,dim_204,dim_205,dim_206,dim_207,dim_208,dim_209,dim_210,dim_211,dim_212,dim_213,dim_214,dim_215,dim_216,dim_217,dim_218,dim_219,dim_220,dim_221,dim_222,dim_223,dim_224,dim_225,dim_226,dim_227,dim_228,dim_229,dim_230,dim_231,dim_232,dim_233,dim_234,dim_235,dim_236,dim_237,dim_238,dim_239,dim_240,dim_241,dim_242,dim_243,dim_244,dim_245,dim_246,dim_247,dim_248,dim_249,dim_250,dim_251,dim_252,dim_253,dim_254,dim_255,dim_256,dim_257,dim_258,dim_259,dim_260,dim_261,dim_262,dim_263,dim_264,dim_265,dim_266,dim_267,dim_268,dim_269,dim_270,dim_271,dim_272,dim_273,dim_274,dim_275,dim_276,dim_277,dim_278,dim_279,dim_280,dim_281,dim_282,dim_283,dim_284,dim_285,dim_286,dim_287,dim_288,dim_289,dim_290,dim_291,dim_292,dim_293,dim_294,dim_295,dim_296,dim_297,dim_298,dim_299,dim_300,dim_301,dim_302,dim_303,dim_304,dim_305,dim_306,dim_307,dim_308,dim_309,dim_310,dim_311,dim_312,dim_313,dim_314,dim_315,dim_316,dim_317,dim_318,dim_319,dim_320,dim_321,dim_322,dim_323,dim_324,dim_325,dim_326,dim_327,dim_328,dim_329,dim_330,dim_331,dim_332,dim_333,dim_334,dim_335,dim_336,dim_337,dim_338,dim_339,dim_340,dim_341,dim_342,dim_343,dim_344,dim_345,dim_346,dim_347,dim_348,dim_349,dim_350,dim_351,dim_352,dim_353,dim_354,dim_355,dim_356,dim_357,dim_358,dim_359,dim_360,dim_361,dim_362,dim_363,dim_364,dim_365,dim_366,dim_367,dim_368,dim_369,dim_370,dim_371,dim_372,dim_373,dim_374,dim_375,dim_376,dim_377,dim_378,dim_379,dim_380,dim_381,dim_382,dim_383,dim_384,dim_385,dim_386,dim_387,dim_388,dim_389,dim_390,dim_391,dim_392,dim_393,dim_394,dim_395,dim_396,dim_397,dim_398,dim_399,dim_400,dim_401,dim_402,dim_403,dim_404,dim_405,dim_406,dim_407,dim_408,dim_409,dim_410,dim_411,dim_412,dim_413,dim_414,dim_415,dim_416,dim_417,dim_418,dim_419,dim_420,dim_421,dim_422,dim_423,dim_424,dim_425,dim_426,dim_427,dim_428,dim_429,dim_430,dim_431,dim_432,dim_433,dim_434,dim_435,dim_436,dim_437,dim_438,dim_439,dim_440,dim_441,dim_442,dim_443,dim_444,dim_445,dim_446,dim_447,dim_448,dim_449,dim_450,dim_451,dim_452,dim_453,dim_454,dim_455,dim_456,dim_457,dim_458,dim_459,dim_460,dim_461,dim_462,dim_463,dim_464,dim_465,dim_466,dim_467,dim_468,dim_469,dim_470,dim_471,dim_472,dim_473,dim_474,dim_475,dim_476,dim_477,dim_478,dim_479,dim_480,dim_481,dim_482,dim_483,dim_484,dim_485,dim_486,dim_487,dim_488,dim_489,dim_490,dim_491,dim_492,dim_493,dim_494,dim_495,dim_496,dim_497,dim_498,dim_499,dim_500,dim_501,dim_502,dim_503,dim_504,dim_505,dim_506,dim_507,dim_508,dim_509,dim_510,dim_511,dim_512,dim_513,dim_514,dim_515,dim_516,dim_517,dim_518,dim_519,dim_520,dim_521,dim_522,dim_523,dim_524,dim_525,dim_526,dim_527,dim_528,dim_529,dim_530,dim_531,dim_532,dim_533,dim_534,dim_535,dim_536,dim_537,dim_538,dim_539,dim_540,dim_541,dim_542,dim_543,dim_544,dim_545,dim_546,dim_547,dim_548,dim_549,dim_550,dim_551,dim_552,dim_553,dim_554,dim_555,dim_556,dim_557,dim_558,dim_559,dim_560,dim_561,dim_562,dim_563,dim_564,dim_565,dim_566,dim_567,dim_568,dim_569,dim_570,dim_571,dim_572,dim_573,dim_574,dim_575,dim_576,dim_577,dim_578,dim_579,dim_580,dim_581,dim_582,dim_583,dim_584,dim_585,dim_586,dim_587,dim_588,dim_589,dim_590,dim_591,dim_592,dim_593,dim_594,dim_595,dim_596,dim_597,dim_598,dim_599,dim_600,dim_601,dim_602,dim_603,dim_604,dim_605,dim_606,dim_607,dim_608,dim_609,dim_610,dim_611,dim_612,dim_613,dim_614,dim_615,dim_616,dim_617,dim_618,dim_619,dim_620,dim_621,dim_622,dim_623,dim_624,dim_625,dim_626,dim_627,dim_628,dim_629,dim_630,dim_631,dim_632,dim_633,dim_634,dim_635,dim_636,dim_637,dim_638,dim_639,dim_640,dim_641,dim_642,dim_643,dim_644,dim_645,dim_646,dim_647,dim_648,dim_649,dim_650,dim_651,dim_652,dim_653,dim_654,dim_655,dim_656,dim_657,dim_658,dim_659,dim_660,dim_661,dim_662,dim_663,dim_664,dim_665,dim_666,dim_667,dim_668,dim_669,dim_670,dim_671,dim_672,dim_673,dim_674,dim_675,dim_676,dim_677,dim_678,dim_679,dim_680,dim_681,dim_682,dim_683,dim_684,dim_685,dim_686,dim_687,dim_688,dim_689,dim_690,dim_691,dim_692,dim_693,dim_694,dim_695,dim_696,dim_697,dim_698,dim_699,dim_700,dim_701,dim_702,dim_703,dim_704,dim_705,dim_706,dim_707,dim_708,dim_709,dim_710,dim_711,dim_712,dim_713,dim_714,dim_715,dim_716,dim_717,dim_718,dim_719,dim_720,dim_721,dim_722,dim_723,dim_724,dim_725,dim_726,dim_727,dim_728,dim_729,dim_730,dim_731,dim_732,dim_733,dim_734,dim_735,dim_736,dim_737,dim_738,dim_739,dim_740,dim_741,dim_742,dim_743,dim_744,dim_745,dim_746,dim_747,dim_748,dim_749,dim_750,dim_751,dim_752,dim_753,dim_754,dim_755,dim_756,dim_757,dim_758,dim_759,dim_760,dim_761,dim_762,dim_763,dim_764,dim_765,dim_766,dim_767
Agreeableness,0.02960375,0.076408565,0.004916539,0.0054280455,-0.0015731897,0.010850781,-0.023337953,-0.023605516,-0.003760566,0.0067170616,-0.0033178802,0.004846353,-0.01541064,-0.029685253,0.03514888,0.015824413,0.019139655,0.012200301,0.03234804,-0.020401942,0.0045904634,0.017013734,0.013725867,-0.00755748,-0.019325746,-0.0058317706,0.02706828,-0.019993313,0.048535034,0.025290845,0.013219439,0.028519258,-0.025219848,-0.0011594075,1.7337329e-06,-0.0014451946,-0.014269132,-0.015071808,-0.014838765,0.022186158,0.025026305,-0.03538574,0.01823983,0.02287534,-0.04152015,0.03147118,-0.010703863,0.013799864,0.025657155,-0.00403562,0.005225224,0.022086034,-0.015639536,-0.015769865,-0.01197799,-0.0039931145,0.011389289,-0.028372703,-0.046455327,-0.020934315,-0.00374429,-0.024344116,-0.016155029,0.002234299,0.031944845,-0.012086399,0.022757292,-3.603792e-05,0.017904809,0.0030475233,0.019505057,-0.0074849618,-0.028168624,-0.01269644,0.0025147041,0.013747555,-0.011957727,0.003122067,0.0042787404,0.0065867305,-0.025527598,0.031072928,-0.0014023025,-0.013914488,-0.014515546,0.008332136,-0.029952006,-0.011682565,0.014223568,-0.010241303,-0.048005436,-0.020614745,-0.032866668,-0.009651031,0.002267,-0.0075040497,-0.010562747,0.007970195,0.018796375,-0.010819188,-0.0043278565,0.027121322,-0.000616387,-0.008185033,0.008313484,-0.015993955,0.010649526,-0.00049139356,-0.020304859,0.0063251634,0.019867942,0.014410898,0.04214683,0.00031412145,0.038239546,0.029035313,-0.007883783,-0.010946737,-0.054878842,-0.0066050286,-0.03442687,-0.024465524,0.0021670086,0.013815589,-0.025241626,0.0146135315,-0.029236143,0.004792171,-0.04729283,-0.013863037,-0.011858423,-0.052693963,0.040628392,-0.023090912,0.0035871463,0.039384346,-0.012831815,-0.022877611,-0.030817775,0.0001762008,0.00023114604,-0.025708715,0.000933499,-0.0116974125,0.02284119,0.013570931,0.009541872,-0.022321763,0.010040562,-0.021176701,-0.020118665,0.019485464,-0.0084465975,0.0028839947,-0.0072171446,0.028830366,0.00014344044,-0.038753703,-0.036035772,0.0067437817,0.029308848,0.012333729,0.021221763,0.007219353,-0.0046366868,0.010643634,0.050003275,0.0068419743,-0.022679323,-0.023179123,0.03842363,-0.020002367,-0.03782662,-0.012407437,0.039636638,-0.001890046,-0.02638515,0.011889589,-0.035726473,0.0021749816,-0.030514086,-0.008883831,-0.0010269401,0.007381204,0.029459568,-0.010618083,0.0067250407,0.049976576,0.006644171,0.012982267,-0.03395075,0.0070432387,0.006479327,0.009107824,-0.04805343,-0.029173603,0.02335558,-0.03668871,0.0045977067,-0.0550417,-0.006456958,-0.012871106,-0.00026541142,0.025672691,-0.0029714901,0.0058750673,-0.019614128,-0.00976327,0.01724998,-0.019216947,0.051164646,-0.006398594,-0.014010492,0.011341058,-0.00571877,0.029161258,-0.0029254511,0.00059468555,0.014725302,0.050692413,0.004452847,0.026382806,0.02868337,0.0031202768,0.03930429,-0.046258386,-0.009612362,0.024351204,0.049363684,-0.009105578,0.016078735,-0.012466915,-0.015687713,0.02105839,-0.0032011617,0.030915292,0.0043493626,0.0067807008,-0.033917595,-0.03777278,-0.022616299,-0.02941397,0.007317689,0.03357252,0.010262795,0.016080743,0.029593736,-0.014383211,-0.035682295,-0.039652657,-0.013599235,0.0045225513,-0.011664256,-0.013543573,-0.011560812,0.0068028136,-0.034715205,-0.0058388473,0.005809981,-0.013789532,-0.020197766,-0.00015484697,-0.0057552275,0.015623731,0.012466371,-0.011304129,0.011504162,-0.03965382,-0.042758614,0.009268018,0.0053434893,-0.014020942,0.0055103675,-0.0018789549,0.009672509,0.022413792,0.0024473702,-0.0061818524,-0.00962562,0.0042218934,-0.0077935457,-0.002896404,-0.009104092,0.0033328626,-0.0063057225,0.009020424,-0.008805403,0.00231947,0.0400076,-0.011766429,0.005610576,0.015550873,-0.035446424,-0.027861165,-0.011127677,0.009670015,-0.005024689,0.005570246,-0.009121998,-0.014590319,0.017703673,0.029671026,-0.0012998905,0.017357627,-0.004584206,-0.006757704,0.0043055196,-0.0337561,0.0019546223,0.037466545,0.022932671,-0.020621957,-0.002358114,0.022712348,0.01899506,0.0054112053,0.0011998275,-0.0154792555,0.029503075,0.018072847,0.041061863,0.0005899622,0.04662879,-0.0024775092,0.005408822,0.037224032,0.00043590553,0.0142792985,0.053100508,0.0003818314,-0.017866937,0.015591961,0.021898901,-0.0082191,-0.019233948,0.0019122558,0.008294086,0.018570993,-0.0025154979,0.001251249,0.0077256835,-0.008103309,-0.011406913,-0.031513035,-0.037189078,-0.012531672,0.03197488,-0.006134438,-0.009183976,-0.026685752,-0.0026217725,-0.0038046353,-0.016839055,-0.0063941,0.024996549,-0.019901864,-0.024989152,0.02891603,0.023086535,-0.02986379,-0.030258581,0.002161325,0.026884394,-0.024246424,0.00582375,-0.01672757,0.046116337,0.035917703,-0.011327244,-0.011525591,0.008014101,0.028814124,-0.020265063,0.027139803,-0.010962757,0.020808306,0.026121967,-0.038657095,0.03222407,-0.022221321,0.03383438,-0.036297906,-0.019524852,-0.01892333,0.0037078382,-0.024939857,-0.0011736102,0.010962308,-0.03415479,0.0022972336,0.024267385,0.006124025,0.005410652,0.004961999,0.028572962,-0.03972279,0.0037827727,0.0050420095,0.011744271,-0.002521541,-0.020152511,-0.00898853,0.023986155,0.0028177768,-0.032605212,-0.003921505,-0.011083054,0.03845466,0.019207384,-0.033999894,-0.070276506,0.020581752,0.025807276,-0.0048279767,-0.009834074,-0.045706954,0.0123645505,-0.018369839,0.011520285,-0.041845664,-0.014341965,-0.020198783,0.047687475,-0.016031515,-0.060801517,0.0049094935,0.0032804518,0.03299561,0.023792183,-0.026680304,0.0046261298,0.040002942,0.039980423,-0.0075171175,-0.017495364,-0.016689561,-0.023054942,0.021132352,-0.0022224926,-0.031474557,-0.036689013,-0.0355503,0.03030517,-0.016628338,-0.019965867,0.0026728977,0.0012981812,-0.010736746,-0.020853646,0.011894465,0.010562215,0.018082002,-0.026294744,0.013299007,0.011057097,-0.01634091,-0.011210858,0.016390277,0.004267896,-0.0005499743,0.02595406,0.019417027,0.01767203,0.04423156,-0.02564857,0.0016206856,0.0009875116,-0.011754048,0.04148184,-0.017132105,0.0022660766,-0.023019893,0.00086155237,0.00955976,0.00963763,0.039999798,-0.015986264,-0.021394126,-0.06214874,-0.014867852,-0.01315605,0.016896013,-0.02659367,0.0050760373,0.0016404608,0.00025341552,0.008603611,-0.0141705945,-0.002907398,-0.035262953,-0.0055067744,-0.0009836153,-0.029046344,-0.02213903,-0.024576968,0.029947964,-0.027690152,0.0038562277,-0.016068982,0.015607306,-0.018408012,0.010722625,-0.0075436723,-0.0156185,0.048781205,-0.017598176,0.020259915,0.050135836,-0.020230668,0.00886273,-0.008931614,4.276773e-05,-0.030354716,-0.08606138,-0.011875521,0.0010193806,-0.029949157,-0.010029023,0.019922335,-0.030389065,0.01621822,0.018644411,0.04056071,0.0083184345,-0.0036213975,0.038048748,-0.01591556,-0.02102788,-0.038829103,-0.011507426,-0.019326035,-0.010170965,-0.087334335,-0.004039953,0.016563661,0.0048940484,0.013614048,0.01127709,-0.03169816,0.016394984,-0.03112884,0.0020931086,0.0067253304,0.017363021,0.0023267856,-0.010764793,-0.005325541,0.012599218,0.0023775874,0.0077617043,0.0017314259,-0.008292754,-0.0127810845,-0.019714048,-0.022687076,-5.9373415e-33,-0.012698996,-0.0014492891,-0.045987327,0.0076238536,-0.043805715,-0.047172148,0.018997604,0.027720304,0.014992226,-0.029003238,-0.009809017,0.014173753,0.016323114,-0.039008353,0.004667386,-0.0005252894,0.010105836,0.01803468,0.035552,-0.017545298,-0.01248305,-0.004836936,0.01273749,-0.0072881826,0.038029462,-0.016322868,-0.005378297,-0.004906772,0.039714307,-0.0062010004,0.016383199,-0.012739561,0.005721926,0.045584258,0.011874479,0.058460522,0.009697986,0.002437683,-0.006678222,-0.007971101,-0.02515546,-0.035378806,-0.0047122627,-0.0066385404,-0.024278289,-0.009995514,0.037247818,0.05863742,0.042650547,0.037642203,-0.038269904,-0.021002404,-0.046738863,0.006484006,-0.030633226,-0.012321676,0.029987589,0.0078322515,-0.04323742,-0.0012151275,-0.05270979,-0.031845894,0.00304171,-0.0014216249,0.021089628,0.041826844,-0.00096327934,0.020321442,0.007907414,-0.019564351,0.024241224,0.027316662,-0.0050753257,0.060366575,-0.001241279,-0.06378695,0.020326626,0.00040749332,0.015279385,-0.023214335,0.004640314,0.013282795,0.0026143214,-0.01611371,0.034683798,-0.019500867,0.003239055,0.030271761,-0.041483145,-0.005983871,0.0054802313,0.0031773988,0.020130498,0.021634407,-0.010763426,-0.018889444,-0.023059705,0.010941061,-0.02214071,0.020159777,-0.009385296,0.020580163,-0.041963886,-0.05205695,0.020644857,0.011728986,0.011921759,0.0123763485,-0.018119978,-0.0012226249,-0.00301753,0.022532938,-0.00435679,0.0101979,0.005646189,0.004076274,0.018795425,-0.006390501,-0.033562895,-0.0008604476,-0.0024449835,0.05210996,-0.00084088434,0.012952792,0.007929497,0.0035209407,0.010278892,0.004401144,-0.0012575822,-0.022134615,0.0058537708,-0.0033876488,2.3894776e-07,-0.053611998,0.014260985,-0.036338616,0.011954009,0.028253755,0.056183953,-0.018059496,0.03505345,-0.032740768,0.0062905564,0.017892579,-0.0222544,0.023519784,0.012035135,-0.014685422,0.02027993,0.005059196,-0.026637735,0.043519933,-0.052264065,-0.005331962,-0.009901955,0.01110065,0.021437285,0.030842626,0.030492505,0.02075905,-0.03454186,0.038559888,0.03697725,-0.0043960237,-0.062371183,-0.017550496,0.061537474,-0.010726646,-0.018171215,-0.007546657,0.04101943,0.020604324,0.019650185,-0.00094167073,0.024998173,0.0057601784,-0.0047075246,-0.03547737,-0.022249945,0.018832838,-0.0025024556,0.03055954,0.0077031604,-0.0056755156,0.017848894,0.024850877,0.02536192,0.020715268,-0.05430214,-0.0004514725,-0.0047232783,0.03634291,-0.0022880286,-0.0006034686,-0.035396043,-0.0036133537,0.037137195,0.015558484,0.046361793,-0.015403521,1.1458911e-34,-0.00550678,0.018951347,-0.015035736,-0.0062920284,0.0714866,-0.016946873,0.012771833,0.0037367223,0.0042079636,0.033690777,0.0042461758
Openness,0.011073977,0.073612325,-0.006477754,0.013507714,-0.018611763,0.0056462083,-0.011529545,-0.011677556,0.011022463,0.018118989,-0.0011379038,-0.004472919,-0.028850602,-0.020158675,0.008815075,-0.002583227,0.011316667,-0.0070509966,0.009520202,0.0046810727,-0.018289592,-0.005937822,0.011664287,0.0001534479,0.037411857,-0.02897425,-0.0012842243,0.0009377327,0.025793174,0.0004933939,-0.015773397,0.01166864,-0.018331172,0.017782742,1.4874878e-06,0.0018090345,-0.00063430256,-0.012191065,0.040978674,0.015753437,0.022810632,0.013822969,-0.015304994,0.00017073347,-0.025142452,0.013177215,0.00773339,0.023065588,-0.030394487,0.00750051,0.0061129853,0.0017927255,-0.0112692,-0.018987989,0.047427874,0.03750306,0.026655681,-0.010499399,0.014879581,-0.0024242105,-0.03520116,-0.010288362,-0.011146355,0.0074226256,0.029667607,0.010091084,0.03481699,-0.029564964,0.027996173,0.0064503835,-0.0062497775,-0.0030824516,-0.0039105397,0.010670148,0.0066729286,0.02165477,-0.021642027,0.02011163,0.009503749,-0.0010714607,0.02493515,0.01896095,-0.0059321984,0.009694432,0.017922154,-0.0076781907,-0.0045232233,-2.699974e-05,-0.005792754,-0.022559395,-0.010316933,-0.014429341,0.0034849953,-0.018962381,-0.00041525564,-0.0066330433,0.018062769,0.004644108,0.0037885373,0.0012429854,0.025168195,0.039377663,-0.021708464,0.0027472477,0.008534641,-0.027821558,0.003447356,0.005192904,-0.016045345,0.029374035,0.005376873,0.008059354,0.026130334,-0.0038654848,-0.0044612917,-0.02916412,-0.006459426,-0.014532133,-0.01588167,-0.008889928,-0.061509218,-0.005502219,0.032104585,0.035786357,-0.0010994846,0.025149109,-0.013715736,0.007946875,-0.009335354,-0.0024849686,-0.010913294,-0.012854428,-0.018554019,-0.0047676614,0.020927854,0.0318011,0.009740896,-0.028339399,-0.01402102,-0.0053464375,0.02414179,-0.023484202,0.04060614,-0.001424708,-0.019750793,0.00037503042,0.01587165,-0.010957207,0.00841525,-0.015463742,-0.0034522947,0.024368392,-0.011107121,0.008546615,-0.019248338,0.024879916,0.024399048,0.00079226913,-0.005517539,0.021711608,0.010900085,0.010394917,0.0007305232,-0.032765057,-0.016887313,0.009373725,0.028397733,0.00033679884,-0.021749437,0.004973604,0.0067705456,-0.01873653,-0.016287893,0.016552718,0.01719728,0.022793109,-0.019428477,0.015365879,-0.02835285,-0.03348156,0.015708642,0.02711148,0.004223983,0.047763005,0.027573736,0.009012022,0.014834573,0.009274445,-0.008912245,0.004311433,0.0013773581,0.017087879,0.020566842,0.020817978,-0.022280952,-0.020572819,0.031954635,-0.03371265,0.010053963,-0.02682671,-0.021881672,0.029004052,0.020898767,0.023823403,0.00025398098,-0.009899168,-0.017138103,-0.005296843,0.0344847,0.021247542,0.02178328,0.012000817,0.005047826,-0.002317115,-0.0024495402,-0.021794133,0.00073065126,-0.0013838573,-0.0073392806,0.06260557,-0.020567367,0.0037935858,-0.0047378293,-0.005506789,-0.0022799002,-0.034854736,0.011931281,-0.0014745469,0.0059445314,-0.0142068835,-0.007063106,0.0048690364,0.002604094,0.0037283248,-0.00066370255,0.01235725,-0.0011096086,0.03297299,0.0002786578,-0.05096717,-0.0063394974,-0.013314114,0.0146412,0.011673189,-0.0035963885,0.0034153562,0.035199415,0.0009957225,-0.008097841,-0.028978767,0.012156519,-0.004791421,-0.012696348,-0.0017138179,0.012637791,0.008665398,-0.0010025626,-0.00423111,-0.013948715,-0.02038725,-0.0062809344,-0.015785616,-0.004859764,0.0022384084,-0.003067584,-0.034069113,0.026037449,-0.00448215,-0.017771931,0.0046333265,0.0027460288,-0.010545905,-0.00086389016,-0.014244627,-0.012997626,0.008463089,0.0015513742,-0.008843849,0.020074846,-0.00091873406,-0.012292203,-0.003761036,-0.0013288461,0.010975526,-0.00231325,0.014669739,0.0044601182,0.00064487365,0.026989294,0.012368153,0.0036248376,-0.008705393,-0.0081834225,-0.016366147,-0.004689951,-0.006747801,0.0071123815,0.015744183,-0.00079058175,-0.015504997,0.014618531,-0.008931733,0.012133963,0.004067999,0.0035290353,0.02066412,0.027114017,-0.01728492,-0.03248262,0.020930042,-0.011338373,-0.018229803,0.012606633,0.047253232,0.0054614586,-0.0023442649,0.0008175387,-0.022547508,0.019843552,0.01355091,0.009655758,0.00591526,0.04086681,0.02794128,-0.0029695546,-0.007024106,0.03700326,-0.0114072645,0.0065703834,-0.02204866,0.0122219315,0.022751698,-0.0021755176,-0.0016360692,0.00789899,-0.027535489,-0.0098984325,0.027467402,-0.0034695806,-0.011011829,0.006325223,0.011578522,-0.037063174,0.013705277,-0.027962895,-0.022518069,0.0128915,0.010578092,-0.013462514,-0.015568114,0.019313628,-0.012352894,0.006442532,-0.017823344,0.025613913,0.008856847,-0.008623616,-0.002290589,-0.00071086176,-0.00015668881,-0.016331192,0.0004775975,-0.027772,-0.0010844836,-0.009373748,0.016389573,0.026690548,0.012996622,0.004302678,-0.0017238915,-0.009596898,0.015992714,-0.023762604,0.029152112,-0.0014958748,0.008726242,0.016269179,-0.031257097,0.01582857,-0.020009516,0.014716323,-0.0172319,-0.007529071,-0.019388271,-0.010916236,-0.018393422,-0.01087656,0.009128683,-0.011407315,-0.021988692,0.016719801,-0.0032400128,8.6472835e-05,-0.015143509,0.0154140005,0.007182171,-0.011364213,-0.006005118,-0.010389401,0.015092551,-0.023386138,-0.005516315,0.00060040574,0.0018550478,0.002310091,-0.004300196,0.0006797753,0.020329002,-0.011473317,-0.048324484,-0.04091846,0.03365441,0.015725406,0.0008469449,-0.0005256313,0.007935691,-0.016489826,-0.024127549,0.021710487,-0.035542108,-0.033253614,-0.006856116,0.043358,-0.0016606479,-0.025693981,-0.007988655,0.006594185,0.027228596,-0.002695436,-0.016247794,0.006209508,0.010838065,0.006790641,0.025690474,-0.01875899,-0.020838663,-0.016537132,0.040011972,-0.004006146,-0.015549727,-0.014185225,-0.04174331,0.029767804,-0.0052190344,0.025847556,0.006909261,0.0010728333,-0.0053559593,0.015664853,0.025148675,0.0018190015,0.005459444,-0.02484513,0.02789289,-0.0044325558,-0.013355133,-0.01463562,-0.041192576,-0.013743772,-0.003430919,0.0033946068,0.019529713,0.0051936028,0.029650753,0.027463498,-0.0022103821,0.0032219514,0.014012195,-0.00028389491,-0.023821577,0.012242862,-0.0028255426,-0.011163675,0.010799792,-0.003534694,0.024857761,0.0003331052,-0.021091172,-0.021627938,0.00055462564,-0.0048593916,-0.0036080375,-0.026505882,0.00847214,-0.006767927,-0.022454314,-0.010474392,-0.012186679,-0.0023109764,-0.04364124,0.02205261,-0.00760622,-0.019972183,-0.0010315034,0.007844704,0.00471673,-0.03338988,-0.011548426,-0.009545124,-0.0052964366,-0.002338474,0.0073728263,-0.018865805,0.010277669,0.009194214,-0.01377343,0.013052671,0.026310565,0.0021188494,-0.006028716,0.0030791059,-0.013887594,-0.030866414,-0.04024004,-0.0044794404,-0.00532948,-0.002853797,-0.03611202,0.023433872,-0.023064354,0.015936954,0.0030162733,0.02855589,-0.005823823,-0.016451897,0.0011990102,0.0058337897,-0.0036119937,-0.029323025,-0.0056823534,-0.017824156,-0.014230461,-0.031059809,0.004439186,-0.00021641764,0.020207383,-0.0066092997,0.010349204,-0.0015335437,0.059197824,-0.010986216,-0.0043664305,0.024955539,0.00017406791,-0.0061553144,-0.025766974,0.009802654,0.029186808,0.01426177,-0.0060942727,0.0015951851,-8.416389e-05,-0.008905884,-0.017141785,-0.04131781,-5.675328e-33,0.0027564503,0.007292006,-0.012398775,0.016196841,-0.03491041,-0.03968111,-0.015969122,0.016563011,-0.011472248,0.0012970694,-0.008035649,0.0066089784,0.0059423535,-0.012923711,0.024430044,-0.0057906266,0.02258926,0.039090544,0.008090745,-0.012259971,0.0020854902,-0.013111184,0.006182939,-0.043339256,-0.0020756845,0.003836736,0.00597632,-0.055782508,6.757149e-05,-0.011188574,-0.015314694,-0.010500292,0.00044121966,0.027049342,0.0049227043,0.00033928207,0.015270439,0.003933243,-0.013072451,0.0036252795,-0.022625336,-0.047621865,-0.012250367,-0.0050604246,-0.015705615,0.0075057,0.020770669,0.005585572,-0.007684298,0.0014591458,-0.041576784,-0.0026990185,0.00042569902,-0.0076085366,-0.018919634,-0.022202395,0.021704383,-0.008352088,-0.016038978,0.020010913,-0.008893065,0.004541918,8.3436724e-05,-0.0061157593,0.01475064,0.013740976,0.006777942,0.028058356,0.013377723,0.0139554115,0.01863996,-0.003117882,-0.0049245073,0.027990572,0.008788013,-0.033133492,0.0074508414,-0.023315718,0.0046909265,-0.011872947,0.026589029,0.014159507,0.022961145,-0.022354947,0.038534198,-0.014500716,-0.0056719505,0.033429172,-0.009493977,0.009525818,0.0011025628,-0.005801562,-0.002253298,0.008736877,0.029606769,0.021386907,-0.022377769,0.003953301,0.0011364116,-0.014418009,-0.008500072,0.0005247753,-0.01195256,-0.018473884,0.007674242,0.007993197,0.0003823624,0.0082914075,-0.023691766,-0.015072514,-0.009155537,0.014528788,0.035110254,-0.025732273,-0.00938264,-0.017256381,0.014938812,0.01634136,-0.013626923,0.022507777,-0.00034267004,0.0085881995,-0.02820921,0.013369359,0.012418908,-0.0039325547,-0.007234284,-0.0037313756,-0.017890332,-0.039584536,0.004630394,0.010385907,2.2612905e-07,-0.04079429,0.008490388,-0.00999139,0.019569628,0.023467997,0.020642659,-0.008524999,0.0049200556,0.01834339,-0.008809801,-0.008008811,-0.0026600265,0.008800242,0.010315257,-0.012368065,-0.0119697,-0.011968414,0.012714747,0.005328268,-0.013969924,-0.00059488416,-0.0019904834,0.009674699,0.015888283,0.0043113963,0.018614499,0.012046856,0.00029840582,0.03744757,0.0021298162,-0.015625548,0.0019799492,-0.015760684,0.00034949803,-0.0023259253,-0.02660054,0.009491852,-0.011081022,0.027244225,0.008007725,-0.02050987,0.03779168,-0.0017037498,0.0018223757,0.0043498278,-0.0150015475,0.013297898,0.038308304,-0.004217085,-0.00073776086,0.023106962,0.013773278,-0.02753467,-0.011215649,0.010537527,-0.026695384,0.0038633365,-0.015315603,0.03180125,-0.019664453,-0.015028077,0.0064722486,-0.013156357,0.0037611027,-0.015357405,0.003389578,-0.03359073,1.4416255e-34,0.004265317,-0.0034320205,-0.013863056,-0.01871295,-0.009414503,-0.0046527623,-0.0067188186,-0.015337468,0.018020654,0.014160265,-0.014814027
Conscientiousness,0.017709099,0.07416881,0.005106589,-0.0022720185,0.007270086,0.006490315,-0.04222532,-0.025477378,-0.032971267,0.030748608,0.05796211,0.016385827,-0.004658924,-0.016848529,0.008110105,0.023521027,0.021075882,0.0006755909,0.0156422,-0.014328882,-0.025565328,0.015363029,0.00016195001,-0.0016397843,-0.026113978,-0.025730109,0.041787595,-0.0113682775,0.03202253,0.022835469,0.012358375,0.02199372,-0.03410305,0.0054874606,1.74787e-06,0.006293013,0.0017288545,-0.020173464,-0.039423104,0.002541195,0.02203863,-0.032883633,0.0012709353,0.026578069,-0.0175074,0.05537234,0.018259158,0.012871739,-0.0072947126,0.0063266386,-0.014884415,0.018725196,-0.0014985469,-0.017515091,-0.00939155,-0.008305787,-0.0014970108,0.009654936,-0.010022864,-0.018822968,-0.023375824,-0.008337236,-0.018443706,0.028080175,0.0529858,0.015328497,0.050672505,-0.020211397,0.027639704,-0.010570951,0.00504926,-0.0006866057,-0.008614306,-0.0007891234,0.004693718,0.0051452476,-0.032756608,0.025321087,0.022893274,-0.017207565,-0.014703892,0.054553643,-0.003077035,-0.03560646,0.004241815,-0.01844672,-0.011567722,-0.0121791335,0.0093117105,0.0118194185,-0.01853046,-0.034306597,-0.012087098,-0.0041486365,-0.017063385,-0.005841896,0.017922686,-0.001969611,0.015943285,0.0044984748,0.005355982,0.034057196,-0.001682338,-0.008900455,-0.005528076,0.023097947,0.010039086,-0.011879097,-0.04765096,0.007649783,-0.011459142,0.0071676117,0.027191749,0.02088661,0.03495382,-0.012146451,-0.014316339,-0.010938221,-0.025763372,-0.008080532,-0.016048769,-0.0036432436,-0.0022334475,0.024447048,-0.009028012,-0.020608228,-0.030826768,0.033198398,-0.042179335,0.012248401,-0.0056031644,-0.026022784,0.0037112709,-0.0215126,0.014990892,0.0043627983,-0.019780764,-0.021014648,-0.022405414,-0.015407176,0.009195802,-0.02209537,0.009145869,-0.011578955,0.028497145,0.007858931,0.018263692,-0.0019081569,-0.0015650123,-0.030042678,0.0069531766,4.932661e-05,-0.022627467,0.026146783,-0.01584471,0.019955054,0.0012083336,-0.033043195,-0.009777429,0.04349491,0.0020862825,0.007323388,0.030382344,-0.00058152975,-0.014668397,-0.010747847,0.058263246,0.007183378,-0.020281868,-0.019559797,0.032644916,-0.014338301,-0.015140633,0.058003176,0.044348538,0.0027878126,0.00423545,0.010526154,-0.053369373,-0.03807191,-0.01462753,-0.02927412,-0.0070246686,0.020090947,0.070353545,0.002726306,-0.008284527,0.04965523,-0.017940493,0.0035547593,-0.0355633,0.0042007384,-0.008404677,0.023933493,-0.0236222,-0.040004965,0.02089961,-0.03087183,-0.030047754,-0.042018566,-0.00707124,-0.012495491,0.008143716,0.04185998,-0.0032912793,0.009643146,-0.043490354,0.0018113088,0.080203734,-0.02018389,0.008985154,-0.010859098,-0.009706919,0.015949003,-0.01383922,0.0034500405,0.008612847,0.0092777945,0.0044525154,0.06083518,-0.0058357213,0.025210673,0.0030516938,-0.0022254658,0.009165208,-0.012971111,0.014459266,0.015633442,0.022161946,-0.012464234,-0.0017104079,0.0064024297,-0.0048950543,0.0045623006,0.016797904,0.0186931,0.017496996,0.047525357,-0.020914732,-0.02136034,0.002684362,0.00972077,-0.0020471306,0.0063200393,-0.033296797,0.0050147525,0.012242652,0.0047231927,-0.015446123,-0.021262063,-0.012860105,-0.0016538693,-0.014856078,0.00535585,0.0010946719,0.009292461,-0.008511818,-0.015040629,-0.031566765,0.008596645,0.012810738,-0.031197475,0.0016486606,0.015666096,0.031753477,-0.011485989,-0.0057212487,-0.02471964,-0.041281987,-0.0042358777,0.013009984,-0.022149578,-0.008373968,-0.0055878605,-0.017100492,0.032730058,0.016338369,0.01991361,-0.008067672,0.016877213,-0.012484081,-0.03158683,-0.01280455,-0.00093581976,-0.0076275454,-0.033228803,0.007784568,0.001702259,0.007361526,0.002275955,0.041269127,-0.021401107,0.0022740264,-0.003207098,-0.010336037,0.014176012,0.01889653,0.0005262376,-0.014310076,-0.02527562,0.012599435,-0.028534586,0.00089795934,-0.0017484184,0.0041381586,0.008635848,0.032471266,-0.035327204,-0.0025755914,0.02233483,0.0348357,0.0021615054,0.011808329,0.013218454,-0.01294485,0.0034204407,0.0060680434,-0.010322663,0.02857733,0.03939012,0.013301179,0.02516307,0.0053096563,0.008063511,0.006678539,0.044053745,0.0053458232,0.013973236,0.034665987,-0.030067673,-0.0040565315,-0.006119581,-0.022365944,0.00597585,-0.01480097,-0.023337796,0.00051592104,0.02538579,0.016423974,-0.0024815158,-0.011719969,-0.0077015567,-0.047567617,-0.0204039,-0.04156037,0.00813214,0.0021902535,0.012543511,-0.048773203,-0.019710366,0.021697888,0.0016935183,-0.014522951,-0.0037007092,0.01859881,-0.0058681145,-0.003648606,0.022530496,0.014540548,-0.02157808,-0.043129977,0.024935529,0.032572128,0.029936565,-0.014909189,-0.032135002,0.045090336,0.023711925,-0.041355394,0.00059310294,-0.019483173,0.032605097,-0.041637406,0.064558946,-0.021793207,0.029274447,0.020031486,-0.035963338,0.01081456,-0.018851409,0.043030456,-0.018952617,-0.0070221736,0.0016926369,0.0033396073,0.0036904933,0.0022665479,0.026174849,-0.0071674623,0.0048008305,0.027978806,-0.0042513213,-0.004437891,-0.01735461,0.011734892,-0.046452593,-0.006652714,0.008512268,0.004823578,0.012281709,-0.020880098,0.0025622547,-0.01024893,0.034995105,-0.008358413,-0.008413835,0.029157823,0.020381162,-4.5293322e-07,-0.04457895,-0.017870605,0.020173084,0.014143206,0.003184817,-0.023619303,-0.036625322,-0.0043511284,-0.022396155,0.018816901,-0.07992587,-0.023036668,-0.0064952374,0.048668962,0.020566996,-0.020320466,-0.02172208,0.01342724,0.009868595,0.03830834,-0.03917035,-0.003868673,0.030035054,0.0490066,0.020906894,-0.031766374,-0.016719641,-0.018088939,-0.011962662,0.016841399,-0.021374712,-0.044678275,-0.0023626452,0.025304088,0.0064186943,-0.0068165753,-0.0047073285,0.0111596575,-0.013912453,-0.034383524,0.0093919,0.018398127,-0.021852672,-0.023456538,0.022678204,0.01869866,-0.008894351,0.004367867,-0.037300013,0.02280481,0.009033822,0.0236647,0.020290585,-0.026514726,0.034452483,0.0070218164,-0.017165879,-0.010965258,-0.03976284,0.026601797,-0.014135654,-0.03087636,-0.012607547,-0.010998684,-0.00792836,0.009522629,0.017251125,0.021869615,-0.012418543,-0.039527845,-0.0022198379,0.007813502,0.017601185,-0.050869744,-0.008364483,-0.018390505,-0.012101552,0.011592566,-0.016792117,-0.016766816,0.017759243,0.023868592,-0.004563385,-0.014944811,-0.014100817,-0.01828697,0.023439229,-0.05953231,-0.06513459,-0.054171573,0.012304028,0.0026244193,0.019020861,-0.02214086,-0.010466901,0.07056042,-0.013808058,0.0072962902,0.036751974,-0.016611801,0.04180859,-0.04509868,-0.018670918,-0.014458689,-0.021998554,-0.01302214,-0.025430327,0.0031447483,-0.027957456,0.010817923,-0.032193612,0.023906725,0.0007394321,0.028221121,0.010070401,0.026387578,-0.0011036769,-0.012416345,-0.009987683,-0.047451477,0.00472454,-0.024773724,-0.016992861,-0.057504404,0.0037544325,0.0059444313,0.00385024,0.0029657753,0.02356188,-0.032758445,0.004921571,-0.004922303,-0.0025892307,0.025760015,0.015728068,0.005541876,-0.0069765043,-0.016069615,0.030437564,-0.006303074,0.00992953,-0.0068560652,-0.03885903,-0.0054921154,0.015814915,0.0019352349,-5.835319e-33,-0.01994838,-0.013733517,0.0033455521,0.018953072,-0.037614983,-0.022991315,0.0025688317,0.024791665,0.018687671,-0.015306094,-0.012192198,0.009410886,0.020299133,-0.026188513,0.049635146,0.01452523,0.035308566,0.018953664,0.016701445,-0.027095491,-0.027484521,-0.023161324,-0.0023233925,-0.0016345059,0.0038697934,0.0094660055,-0.021012867,0.006270103,0.01608712,0.013816383,-0.009086079,-0.014262203,0.006261884,0.039529108,-0.0043522404,0.050820004,-0.03501777,-0.0015246299,-0.0045338483,-0.007331727,-0.06168286,-0.039322406,-0.0142941065,-0.011131949,-0.023886038,-0.00912385,0.030320318,0.02457101,0.014819086,0.027531428,-0.057510704,-0.010612913,-0.021828815,-0.035278827,-0.014314518,0.00431388,0.031111998,-0.021955602,-0.04213342,-0.011623114,-0.060021102,-0.014451739,0.013299651,0.01710722,-0.009832789,0.024878299,0.0096699195,0.06325803,0.010023652,0.010199339,0.016711928,0.0056447354,-0.011870629,0.008615292,-0.005770123,-0.058269456,-0.01151564,0.002881882,0.0030809622,-0.016076429,-0.0028333266,0.021663822,0.01278706,-0.0013283252,0.035373524,0.008364294,-0.004041773,0.03740919,-0.025801508,0.02837451,-0.023664856,-0.003990775,0.0089482935,0.037707664,0.02373305,0.007775214,-0.026980693,-0.013747372,-0.017755719,0.024934866,-0.019247947,0.019664394,-0.066088304,-0.0058236993,0.0059133284,0.046495244,0.004451154,0.0040043187,-0.012598582,-0.02175779,-0.017892139,0.0120294755,-0.0005475742,-0.046278402,0.017261183,0.0011035831,0.020525826,0.058153328,-0.03928149,-0.045734063,0.010148619,0.06660463,0.021497699,0.016303536,0.02037259,-0.008211717,-0.010008853,0.0071188803,-0.0022587485,-0.00771551,-0.0016505419,0.01421455,2.3939143e-07,-0.048089344,0.007095276,-0.014691257,0.047379244,0.02743526,0.0043518143,-0.03665017,-0.013150712,-0.034925845,0.010280725,0.018410042,-0.00086018007,-0.00015225295,-0.0060626026,0.014991392,-0.007353425,0.0045196502,0.008754072,0.041794926,-0.025920013,0.005997893,-0.01870691,0.0054793158,0.012942582,0.0025460727,0.00091392617,0.018822655,-0.0017255364,0.04305102,0.022233792,0.0057513495,-0.029502837,-0.010144548,0.044049565,0.0004643613,-0.026276862,0.013899401,0.07030029,0.022317836,0.016797116,-0.03488809,0.024970355,-0.0017884563,0.010172816,-0.008720852,-0.04914421,0.017787037,0.01128456,0.00050489744,-0.00042749025,0.0016896371,0.0132818995,0.009369039,0.01749722,0.013236388,-0.023018256,-0.027439468,-0.006474171,0.046117675,0.023920922,-0.043897633,-0.030926839,-0.00061845145,0.022698507,0.021844173,0.018417507,-0.034510013,1.2454148e-34,-0.0026218493,0.021512283,-0.015382488,-0.0002919777,0.04935625,-0.019459678,0.0024500808,0.005911496,-0.0015216653,0.03546453,-0.03271967
Extraversion,-0.00045854785,0.055553135,0.0011132838,-0.00089711376,0.014699887,0.0139881065,-0.04701531,-0.012452942,0.005741661,0.016650628,0.016268795,0.020759484,-0.027892815,-0.0064056455,0.02834448,0.0029317401,0.024551518,-0.019092834,0.024410708,-0.027764326,-0.012689683,0.010408611,0.0030516547,-0.009564706,0.020887652,-0.020226857,0.02500494,0.004610787,0.032231946,0.043520346,-0.0030829797,0.01279116,-0.014574717,-0.008179032,1.6843561e-06,0.00490503,-0.010681306,-0.014948975,0.006572922,0.016853241,0.0256008,-0.0066690273,-0.009239811,0.0015254883,-0.012591463,0.027873324,0.013377723,-0.0077906684,-0.015372439,0.022617983,-0.0035561088,0.021227421,-0.038733054,-0.026907256,0.037167713,0.012679064,0.0029911473,-0.005728345,0.018558012,-0.013601269,-0.03356995,-0.03223338,-0.021497913,0.013718878,0.03300521,0.008474707,0.0025017122,0.0038728807,0.018423794,0.0052305963,-0.015884086,0.006878352,-0.009830157,0.016493483,0.006793409,0.012657522,-0.013692256,0.01710353,0.027762368,-0.009256717,0.00836962,0.05001175,-0.0024091087,-0.012515263,-0.0062341033,0.004023459,0.002560985,0.012751859,0.0021717513,-0.012280465,-0.02515114,0.0029752906,-0.0035396859,-0.01463363,0.005653363,-0.0037070194,-0.0051828236,0.010678547,0.020923844,-0.0039067874,-0.00095348386,0.019332957,-0.026972612,-0.009476162,0.0036273112,-0.04009971,0.016450817,-0.03186375,-0.015394655,0.0045137745,0.03284921,0.016170613,0.024488853,0.010266543,-0.012039457,-0.01982902,-0.043881316,0.0061937473,-0.022531206,-0.019638108,-0.025781548,-0.0032441858,0.026035635,0.013465688,0.016203191,0.0074278377,-0.03160608,0.015549644,-0.031983573,-0.03741838,-0.008041862,-0.009416173,0.011825261,-0.040611457,0.015951188,0.030402048,-0.013712454,-0.030769868,0.003141381,-0.018477513,0.008798928,-0.022784466,0.011767152,-0.023472177,0.01706872,0.007201063,0.007183851,-0.0054925852,0.0026038222,-0.03401244,0.021287808,0.007897229,-0.021954915,0.011568334,0.007493163,-0.0072783567,-0.0017630737,-0.015159809,0.0010209002,0.01578941,0.026146306,0.0108284885,0.015745861,0.0003578835,-0.036366966,0.0047941254,0.058139313,-0.008156577,-0.015041262,-0.021537552,0.04924296,-0.039245535,-0.017969217,0.015446915,0.04441823,-0.020839257,0.003963164,-0.0012245675,-0.056726802,-0.03977212,-0.02295141,-0.0077574085,0.036526226,0.014824342,0.008722718,-0.006515594,0.030130947,0.055009898,-0.005899886,0.007998048,0.007475184,-0.013850882,0.027697613,0.0077779163,-0.008200047,-0.027234552,0.038626794,-0.017730718,0.024214255,-0.043969214,-0.009781612,-0.012376369,-0.03496522,-0.009535789,-0.012976802,0.0011462708,-0.017992454,0.0060350695,0.05173886,-0.011327024,0.022957018,0.003739926,0.0053425836,-7.217905e-05,0.010970268,-0.019876726,0.006649671,0.0012824159,0.021207914,0.046910167,-0.022554353,0.03495478,-0.00091243227,-0.0101298075,-0.004171843,-0.035886962,0.026543142,0.0086507425,0.029441252,-0.016918227,-0.0011044716,-0.00017518194,-0.0027253756,0.016558131,0.0087793125,0.04077397,0.022940628,-0.012898852,-0.038086373,-0.010504503,-0.006017696,-0.032167286,-0.0055396785,0.022871919,-0.0020225283,-0.0047429274,0.0017186613,0.0077744327,-0.010146913,-0.0006494773,0.002207148,0.0032651487,0.002660725,0.0032609196,-0.014011949,0.02770895,0.021395864,-0.0034001924,-0.028459037,-0.03099137,0.024407404,-0.02495076,-0.00864306,0.018795349,-0.0032394158,-0.018952958,0.0062922277,-0.028200248,-0.02394799,0.006284245,0.0062255575,-0.01072085,0.019332606,-0.0045168796,-0.008506575,0.0069573824,0.036004417,-0.01863443,0.00096837926,0.005356889,-0.02676338,0.012147211,-0.0097713405,0.0048424085,0.0034734823,-0.014892548,0.009353274,0.0094133755,0.029803677,-0.019716272,0.00763197,0.011032694,-0.015058816,-0.015854998,-0.009902689,-0.0050407103,0.007904536,0.0067157713,0.007048001,-0.026379103,0.011405025,-0.0071203113,0.014478249,0.010670426,-0.006148146,-0.0054512653,0.009316714,-0.027276652,-0.0050591514,0.019994136,0.022147594,-0.0027670765,0.013460907,-0.0101746805,0.025262455,0.0036101553,0.010216042,-0.002694626,0.032889064,0.012711734,0.018338567,0.014865511,0.033452295,0.023863157,-0.0004074859,0.016929775,-0.0054021426,-0.010847463,0.0064818673,-0.018495636,-0.0039049617,-0.0041558444,0.0027743194,-0.0011219485,-0.021643303,-0.03997137,-0.019273302,0.043161288,-0.014705605,-0.0038484288,0.009631022,-0.005011276,-0.017124195,-0.006118133,-0.043590248,-0.017945379,0.0023698022,0.0134717375,-0.019631915,-0.00374608,0.0075186486,0.004664404,0.007398192,-0.0002642517,0.019256506,0.026041843,-0.0056980364,0.008282635,0.010341492,-0.016300058,-0.034263346,0.022669658,0.0015778629,0.031082802,0.004666984,-0.014240908,0.033557232,-0.003222472,-0.020503307,-0.012262118,0.0022375854,0.014152759,-0.022547754,0.02670642,-0.01728693,0.019882446,0.025572883,-0.02068471,0.054508556,-0.030260144,0.017847896,-0.00068632764,-0.018754782,-0.006468916,-0.012962788,-0.01924826,0.02827738,0.010279003,-0.043619215,-0.015218485,0.05194894,0.017222485,0.016093696,-0.014210272,0.032336023,-0.021240791,-0.015916718,-0.008909862,-0.0047370587,0.008495946,-0.021111904,0.006692191,0.01481431,0.008095328,-0.016484901,0.024889223,-0.017195925,0.02644108,0.0116207935,-0.009918474,-0.05418701,0.015902398,0.03181918,-0.0020164177,0.012567778,-0.0331132,-0.0029238418,-0.023341872,0.016922472,-0.035841145,-0.02678586,-0.0021609485,0.029316097,0.00827379,-0.02269715,-0.009726272,0.03655484,0.016591135,0.001287786,-0.0517222,-0.0034640685,0.04070548,0.03111575,0.014527616,-0.015695026,-0.04279094,-0.030606503,0.030351058,-0.005846981,-0.02686216,-0.0067745545,-0.016637612,0.035371266,-0.032802705,0.039088767,-0.0055965553,0.0010339865,0.0024746459,-0.025936104,0.012778189,0.0049159504,0.0017903708,-0.027529957,0.04851398,0.022933109,-0.018993571,-0.008730694,-0.036050916,-0.003911641,-0.012532624,0.015260469,0.017570531,-0.007249626,0.02262781,0.006949887,0.009721144,-0.00018281552,-0.014991275,0.041845884,-0.024238842,-0.0067484775,-0.020835275,-0.004871408,0.0036612935,-0.016667658,0.0364287,-0.0034590783,-0.039965186,-0.055458426,-0.014900037,0.005623799,0.015834728,-0.040674638,-0.03079155,0.0040858416,-0.010482128,-0.015719319,-0.0063254912,-0.0068930644,-0.030857839,0.0127155045,-0.010003805,-0.030081788,0.0025869259,0.010031083,0.034107428,-0.056765962,-0.048558544,-0.019683136,-0.02965267,-0.0021801344,0.009285201,-0.009130588,-0.013100383,0.04412721,-0.03812333,0.006556418,0.040606316,-0.015709653,-0.00386169,-0.017254643,-0.021941056,-0.033380195,-0.0374148,0.010192646,0.026913775,-0.021136187,-0.019603461,0.03333829,-0.041001808,0.01846132,-0.0052269245,0.013917387,0.017675718,-0.013571831,0.017853191,-0.006590163,-0.025785333,-0.019218173,0.0043367743,-0.0055377497,-0.017772414,-0.026774036,-0.0091536,0.009614828,0.021295713,0.017661279,0.012270999,-0.017513053,0.034202684,-0.0117488345,-0.0026115032,0.014552464,0.0035419057,0.00024502949,-0.02441355,0.019911818,0.014399901,-0.0040338985,-0.008919473,-0.017080687,0.00011598257,-0.021057075,-0.014278472,-0.020012699,-6.140928e-33,-0.022726776,0.006290452,-0.022305252,0.015140767,-0.05812886,-0.030538207,0.014196289,0.03281258,0.025680609,-0.005188001,-0.012258788,0.011278932,0.01718919,-0.014694513,0.007818627,0.0009374462,0.02579324,0.018324988,0.019906828,-0.009822794,-0.012817376,-0.021613663,-0.011259399,-0.036516238,-0.0075184708,0.018238088,-0.0070134974,-0.022846261,0.03981894,-0.0033476753,0.0074113994,0.0052579977,-0.006862139,0.061289873,0.009403916,0.04392107,0.0036251966,0.0029318163,-0.009861748,-0.0076127187,-0.04185668,-0.046948075,-0.0008009632,-0.02014055,-0.022108162,-0.022559995,0.018329998,0.02094072,0.005521717,0.0024566434,-0.050868656,0.0076803826,-0.0146997,-0.020086816,-0.041222494,0.006996269,0.028242039,-0.023545094,-0.009898276,0.00083968724,-0.032287765,-0.0060911854,-0.0024026497,0.011861219,0.011589059,0.019943513,0.0276139,0.048257846,0.0013077281,0.026888156,0.007737844,0.029634967,0.008243016,0.017823607,-0.0017987505,-0.03745675,-0.006982012,-0.018749157,0.013813269,-0.04824816,0.023832565,0.023217812,-0.001527191,-0.008910791,0.02788837,0.034113027,0.0024370148,0.000117978394,-0.03799944,0.011528559,-0.017771514,-0.013600397,-0.003495888,0.014118046,-0.0028112906,0.015036146,-0.0100175515,-0.0030918058,-0.024214163,0.013402827,0.0076897056,0.0029210437,-0.03222474,-0.015967263,0.0013382356,0.025548749,-0.0051069367,0.0133635895,-0.006297799,0.006164396,-0.014837769,0.008748926,0.0005581554,0.0030447338,0.010240135,-0.0051053786,0.00632362,0.035463516,-0.032034107,0.0027032234,0.023630949,0.006087683,-0.013349644,0.02021869,-0.005783088,0.01038623,-0.021615075,0.005312309,-0.017635414,-0.01808746,0.009631614,0.013587994,2.3712509e-07,-0.040928185,0.016636847,-0.01803873,0.03422434,0.027927065,0.022849785,0.0044059916,0.015929366,-0.005462755,0.0019155779,-0.0160208,0.0061885216,0.019046018,0.016808858,0.029509576,-0.0019909428,-0.0040415563,0.009626872,0.04102381,-0.044056755,0.005521906,-0.019947318,-0.000672121,0.01719964,0.01676864,0.007988185,0.013065354,-0.024158219,0.00711979,0.018909644,-0.03158263,-0.01088426,-0.0037102913,0.0004631253,-0.013012617,-0.023300089,0.0022268733,0.047439978,0.007348062,0.01965638,-0.010176486,0.04392853,0.00016883978,0.034747247,0.0038732074,-0.043242946,0.016704507,0.015562459,-0.005690116,-0.009487133,0.008999206,-0.008681896,-0.011493679,0.020136692,0.021673463,-0.030414233,-0.0128456615,-0.019368073,0.028219491,-0.02336817,-0.01664556,-0.00044234205,-0.0064316727,0.04897763,0.013167269,0.018084934,-0.02041738,1.3005404e-34,0.013784078,0.023147253,-0.023541039,-0.02127914,0.039519858,-0.024406137,-0.007598754,-0.0007321855,0.021497631,0.029351624,-0.013328482
Neuroticism,-0.0063104224,0.021899171,0.0063877427,-0.004996585,0.01975174,0.033321813,-0.020113176,-0.003096259,0.023439107,0.018571565,0.027693674,0.0121216765,-0.023331493,-0.040513776,0.0049178055,0.024398705,-0.0008185292,0.019492937,0.040747844,-0.012592297,-0.004434998,-6.155879e-05,-0.025073515,-0.00066282105,0.0035704281,-0.040299375,0.04013888,0.017102085,0.04137623,0.009889453,-0.0010615317,0.010468031,-0.03335841,-0.027680611,1.6999803e-06,0.018692013,-0.010156465,-0.008396717,0.020769788,0.01333787,0.03248832,-0.05470532,-0.0009574988,0.020539144,-0.0036760264,-0.002809167,-0.002984697,0.053062882,0.024756812,0.02626656,-0.010447644,0.047460675,-0.037299898,-0.023601042,0.020616924,0.0036770839,0.0008485741,0.004636949,0.018738894,-0.04764651,-0.02420468,-0.042760853,-0.013183713,0.037511993,0.019887483,0.019031428,0.030648412,-0.01448628,0.007027879,0.020223022,-0.0397463,0.006671893,-0.0012106881,-0.009199954,0.01934785,0.0151821105,-0.029632283,0.0042647193,0.021951662,0.0074589797,0.015446001,0.041188736,0.0047361664,-0.029568309,0.017044922,-0.0077444017,-0.002373514,-0.039189838,0.009190229,-0.017677343,-0.06399235,-0.008239315,-0.005913038,-0.032418538,-0.007949894,-0.0057024774,-0.005391575,-0.016552353,-0.0064759343,0.015607666,-0.00906959,0.0314075,-0.04472908,-0.020830138,0.010049607,-0.01204909,0.007150531,-0.023413943,-0.026689446,0.028011024,0.01970443,0.027849136,0.011986124,-0.005664898,0.002258612,-0.018897038,-0.013862292,-0.0050203386,-0.06024384,-0.0023198947,-0.06673556,-0.0013850337,0.016861353,0.010149526,0.01953133,0.012528472,0.0006441025,-0.011984419,-0.022236953,-0.0616196,0.0012349692,-0.028024493,-0.017131299,-0.040399082,0.0026634645,0.030170655,-0.005620571,-0.009254954,-0.02220989,0.012503673,0.0023412306,-0.024456823,0.019250209,-0.0032573203,0.0072813756,-0.0049415794,0.02727671,-0.046410274,0.011236808,-0.028762698,-0.01923895,0.023661906,-0.02534899,-0.00815541,0.010610278,0.015570474,0.038904533,-0.011833951,-0.0056440732,0.005587848,0.023545198,0.006177045,0.03618188,-0.01758268,-0.0023685358,0.01254825,0.04799157,-0.00025398485,-0.030924113,-0.001857427,0.032756675,-0.027076604,0.010563591,0.019516738,0.014954004,0.02528152,-0.010002544,0.03676531,-0.071496226,-0.0257838,-0.03322235,0.005333749,0.0013135724,0.029253094,0.014707339,-0.005688637,0.008604764,0.023839513,-0.0234154,0.00953668,-0.027461616,0.0037706334,-0.016909244,0.04187897,-0.017882152,-0.041769866,0.041306984,-0.028791642,-0.011220607,-0.05744891,-0.015164641,0.004407109,-0.005532864,-0.012404628,-0.011396562,-0.027504222,-0.033613686,0.019377915,0.050282095,-0.018762866,-0.00831595,0.0070029604,0.0022782588,0.00036246286,0.001264745,0.03460275,-0.0025056743,0.001045938,-0.015244306,0.035935443,-0.026273482,0.003266288,-0.023515409,-0.00023012236,0.00608702,-0.032835793,0.034335177,0.001319615,0.041032333,-0.014590762,-0.008361682,0.02502566,0.015299122,0.0040998533,-0.017515337,0.037644845,0.0010096945,-0.039001364,-0.01880484,0.0036486078,0.013574529,0.012679991,-0.031123474,-0.0026344515,0.013392419,0.0031874564,0.027031766,0.01404085,-0.0049950327,-0.009327152,0.014188831,-0.008897618,-0.0057442323,0.0015271421,0.0014649775,-0.006540036,0.023258045,-0.028079003,-0.02809543,-0.008271034,-0.0010298475,-0.015601636,0.0034882752,-0.0039841314,-0.0037619032,-0.012723775,0.019992426,-0.010629636,-0.014242035,0.002387244,-0.0026248523,-0.011389252,-0.023198837,-0.012522932,-0.030935133,0.0064945617,0.036266442,0.016889807,0.017308112,-0.00450595,-0.018038644,0.009344313,-0.020719562,-0.01623501,-0.014554959,0.012512934,-0.03604756,0.004440744,0.024863154,0.061083253,0.016136585,0.02926895,-0.01824662,-0.02002491,-0.026470048,-0.024259618,0.009647828,0.02486712,0.0007562468,0.011029928,0.0017938676,0.0012205206,-0.00910198,0.010832411,0.01829674,0.0041445135,0.033367295,-0.025709182,-0.017596563,0.05196662,0.042027783,-0.015166377,-0.0048558004,0.010022283,0.0012573554,-0.0023493795,0.007205563,0.0044645625,0.06234781,0.0037532358,0.0033612929,0.0041074767,0.01866305,0.0234658,-0.008898711,0.013081256,0.009319109,0.015895609,0.005385328,-0.032686166,-0.011710008,0.014009024,0.004762894,0.022052301,-0.03695388,-0.06072609,0.010579896,0.02828612,-0.014229723,-0.012533143,0.014786662,0.0033430718,-0.037857242,0.00036294307,-0.02828995,-0.002420277,0.0118052475,0.0044129025,-0.021199219,-0.02372888,0.009950257,-0.0019334547,0.004534662,-0.015493005,0.03457399,-0.004454416,-0.011744666,-0.015618495,0.05771026,-0.015778495,0.0033231534,0.012789001,0.02196881,0.009532151,-0.0041551935,0.0033497314,0.0043522143,0.002358352,0.0069842245,-0.0034215774,-0.0161474,0.048325583,-0.022333046,0.06225939,-0.0042575374,0.025169855,0.025983589,-0.07301106,0.01781128,-0.01644648,-0.00804014,0.0005208931,-0.023479454,-0.005160088,0.0013956301,-0.02238969,-0.0003632202,0.042141438,-0.020443248,-0.015735297,0.0082753915,0.04435015,-0.008091197,0.016843362,0.049948875,-0.025758518,-0.0062010973,-0.019976132,0.011360411,0.017126309,-0.013642383,-0.038511947,-0.022715151,0.021171054,0.02920759,0.027439902,-0.05609357,0.03638872,0.020574711,-0.014258583,-0.00735098,0.01985635,0.039844118,0.00014436059,0.011943876,-0.0074885767,-0.006264012,-0.015765129,0.048378795,-0.076972045,-8.4377825e-05,-0.0022204458,0.030560166,0.015646938,-0.030697279,-0.0067401365,0.008960354,-0.0022187394,-0.003952647,-0.021786526,0.051849898,0.016417459,0.03937156,0.049299013,0.022275986,0.0062929294,0.006288029,0.031977285,-0.007002125,-0.016263489,-0.013830979,-0.022914855,0.032387078,-0.013814996,0.017217567,-0.002515967,0.015915545,0.0015415907,-0.018696522,0.03765739,0.023706483,0.026744723,0.031780526,0.022115225,0.024145454,-0.0038265921,-0.012163636,-0.031584937,-0.0051854416,-0.005071917,0.01764637,0.014845322,-0.039435443,0.005926089,0.0077873417,0.01122098,-0.017679058,-0.03557809,0.012994672,0.0032884676,-0.009906708,-0.0035006877,0.0057272837,0.010994014,0.005298114,0.034988467,0.024382921,-0.011059833,-0.03534858,-0.014677321,-0.0024415555,-0.00086113595,-0.03202993,-0.019187195,-0.00018996443,-0.011041471,-0.021387527,0.0024827998,-0.008589184,-0.010829926,0.013898242,-0.00901322,-0.013041366,-0.040961117,-0.011316354,0.017993882,-0.037035417,-0.039906543,-0.016542366,-0.015148182,0.00041634435,0.013881385,-0.008396971,-0.0072700735,0.037063386,-0.026890503,0.014890905,0.048081383,0.004293926,-0.0023303845,-0.008423034,-0.013690688,-0.028925173,-0.040789783,-0.02373314,-0.04505701,0.019920599,-0.005474437,0.057121705,-0.0014896737,-0.0019806765,0.0021543682,-0.004065894,0.009873208,0.0023048476,-0.0018732107,-0.027772894,-0.010396962,0.0015847851,-0.008051193,-0.02543624,0.0011653858,-0.041900773,0.008531189,0.018456008,0.04892682,0.0025541966,0.010003076,-0.030765362,0.015470545,-0.0007511021,-0.01956617,0.0014657435,0.002427683,0.0073830434,-0.03252342,0.0006940353,0.013398155,0.0032816313,0.03441601,-0.021460138,0.007534063,-0.017364042,-0.018886553,-0.02955141,-5.7090253e-33,-0.015086397,0.004869394,-0.03028431,0.0012556234,-0.03286942,-0.0007516723,0.0070728003,0.022413341,0.04464292,0.025485842,0.0026626352,0.04777174,0.011010242,-0.0068597863,0.0007134213,-0.008119096,-0.008083792,0.026773615,0.01457502,-0.013911688,-0.027654365,0.00103613,0.005532569,-0.02226717,0.015422188,0.00024145655,-0.009236244,-0.019576946,0.036918934,0.0057717822,-0.021131435,0.0045901313,0.011457655,0.05552158,0.009663946,0.037689295,-0.009782661,-0.0025745593,-0.023146743,-0.008128204,-0.060338598,-0.02479077,-0.03007902,0.0019262211,-0.0064577223,-0.01819752,0.014860994,0.028813094,0.006224198,-0.012702386,-0.004077072,-0.008712129,-0.020717235,-0.04078364,-0.057418812,0.02554098,0.019743618,-0.03132227,0.017571487,-0.021299854,-0.03833844,-0.011198279,0.014713318,-0.011428795,-0.012501276,0.013432164,0.013354811,0.038614627,0.011284369,0.018134685,0.016995238,-0.032062646,-0.0045990106,0.007043241,-0.0038574338,-0.06914238,0.008226673,-0.025541142,-0.0386856,-0.011105384,0.024783345,0.020817412,0.025429556,-0.0028652484,0.016189056,-0.016741982,-0.008530161,0.018410912,-0.026143571,0.013135075,-0.0030289928,-0.03375322,-0.015054338,0.026164591,-0.0002747357,-0.016552756,-0.014584005,0.014521721,-0.007820078,0.02075362,0.022652015,-0.004988413,-0.01582743,0.0017050072,0.024446003,0.015214995,0.011306401,-0.008867826,0.01834123,-0.004229038,-0.007857989,0.023538416,-0.005962528,0.028378263,-0.047306705,-0.007998688,0.0035539435,0.020438725,-0.029294947,0.006493859,-0.010113647,0.044546932,0.0025739705,0.011179862,0.0012893666,-0.013612769,-0.011584281,0.016086,0.024440927,0.007318293,-0.0012911553,-0.007801373,2.3850814e-07,-0.06765664,0.027487857,0.0006474463,-0.0043884977,0.025339564,0.03099297,-0.018193027,0.03378406,-0.029504284,0.018939463,-0.017766038,0.0038495306,0.0074420017,-0.0055710077,0.047976226,0.001803988,0.0006555494,-0.0059802434,0.03476188,-0.058774397,0.015146758,-0.022128252,-0.0007080456,-0.000641111,-0.0004505055,0.018439393,0.006235024,-0.0035631333,0.015094136,0.01598859,0.004986103,0.004941243,-0.03596954,0.008866341,0.011094779,-0.0395693,-0.017126072,-0.0032001373,0.0119044045,0.014121459,-0.0068022483,0.061357725,-0.0047062226,0.018314192,-0.01995956,-0.09049208,0.010538886,0.021974035,0.014598171,-0.016580425,0.021337276,-0.0152109945,-0.0045074727,0.022184143,0.017956274,-0.0059459936,-0.012504359,-0.029511323,0.03989757,0.01215545,0.004393257,0.0039094924,-0.018555842,0.027885176,-0.038310137,0.014513169,-0.023743285,1.3020786e-34,0.0073870555,0.050584476,-0.03745364,-0.011343315,0.034606006,-0.024467519,-0.051878005,-0.0032193232,-0.0128731625,0.040464144,-0.024855552
